digraph Tree {
node [shape=box, style="filled", color="black", fontname="helvetica"] ;
edge [fontname="helvetica"] ;
0 [label="TotalWorkingYears <= -1.252\ngini = 0.271\nsamples = 3087\nvalue = [2589, 498]", fillcolor="#ea995f"] ;
1 [label="MaritalStatus_Single <= 0.5\ngini = 0.498\nsamples = 198\nvalue = [106, 92]", fillcolor="#fceee5"] ;
0 -> 1 [labeldistance=2.5, labelangle=45, headlabel="True"] ;
2 [label="JobLevel_Manager <= 0.5\ngini = 0.402\nsamples = 97\nvalue = [70, 27]", fillcolor="#efb285"] ;
1 -> 2 ;
3 [label="MonthlyIncome <= -0.689\ngini = 0.341\nsamples = 87\nvalue = [68, 19]", fillcolor="#eca470"] ;
2 -> 3 ;
4 [label="EnvironmentSatisfaction_Very High <= 0.5\ngini = 0.488\nsamples = 26\nvalue = [11, 15]", fillcolor="#cae5f8"] ;
3 -> 4 ;
5 [label="gini = 0.26\nsamples = 13\nvalue = [2, 11]", fillcolor="#5dafea"] ;
4 -> 5 ;
6 [label="gini = 0.426\nsamples = 13\nvalue = [9, 4]", fillcolor="#f1b991"] ;
4 -> 6 ;
7 [label="WorkLifeBalance_Good <= 0.5\ngini = 0.123\nsamples = 61\nvalue = [57, 4]", fillcolor="#e78a47"] ;
3 -> 7 ;
8 [label="gini = 0.0\nsamples = 46\nvalue = [46, 0]", fillcolor="#e58139"] ;
7 -> 8 ;
9 [label="gini = 0.391\nsamples = 15\nvalue = [11, 4]", fillcolor="#eeaf81"] ;
7 -> 9 ;
10 [label="gini = 0.32\nsamples = 10\nvalue = [2, 8]", fillcolor="#6ab6ec"] ;
2 -> 10 ;
11 [label="MonthlyIncome <= -0.89\ngini = 0.459\nsamples = 101\nvalue = [36, 65]", fillcolor="#a7d3f3"] ;
1 -> 11 ;
12 [label="gini = 0.0\nsamples = 11\nvalue = [11, 0]", fillcolor="#e58139"] ;
11 -> 12 ;
13 [label="MonthlyIncome <= 1.028\ngini = 0.401\nsamples = 90\nvalue = [25, 65]", fillcolor="#85c3ef"] ;
11 -> 13 ;
14 [label="Age <= -2.034\ngini = 0.265\nsamples = 70\nvalue = [11, 59]", fillcolor="#5eafea"] ;
13 -> 14 ;
15 [label="gini = 0.49\nsamples = 14\nvalue = [6, 8]", fillcolor="#cee6f8"] ;
14 -> 15 ;
16 [label="JobRole_Sales Executive <= 0.5\ngini = 0.163\nsamples = 56\nvalue = [5, 51]", fillcolor="#4ca7e8"] ;
14 -> 16 ;
17 [label="Age <= -0.776\ngini = 0.044\nsamples = 44\nvalue = [1, 43]", fillcolor="#3e9fe6"] ;
16 -> 17 ;
18 [label="gini = 0.0\nsamples = 33\nvalue = [0, 33]", fillcolor="#399de5"] ;
17 -> 18 ;
19 [label="gini = 0.165\nsamples = 11\nvalue = [1, 10]", fillcolor="#4da7e8"] ;
17 -> 19 ;
20 [label="gini = 0.444\nsamples = 12\nvalue = [4, 8]", fillcolor="#9ccef2"] ;
16 -> 20 ;
21 [label="JobLevel_Junior Employee <= 0.5\ngini = 0.42\nsamples = 20\nvalue = [14, 6]", fillcolor="#f0b78e"] ;
13 -> 21 ;
22 [label="gini = 0.0\nsamples = 10\nvalue = [10, 0]", fillcolor="#e58139"] ;
21 -> 22 ;
23 [label="gini = 0.48\nsamples = 10\nvalue = [4, 6]", fillcolor="#bddef6"] ;
21 -> 23 ;
24 [label="MaritalStatus_Single <= 0.5\ngini = 0.242\nsamples = 2889\nvalue = [2483, 406]", fillcolor="#e99659"] ;
0 -> 24 [labeldistance=2.5, labelangle=-45, headlabel="False"] ;
25 [label="NumCompaniesWorked <= 0.717\ngini = 0.192\nsamples = 2001\nvalue = [1786, 215]", fillcolor="#e89051"] ;
24 -> 25 ;
26 [label="YearsWithCurrManager <= -1.007\ngini = 0.153\nsamples = 1554\nvalue = [1424, 130]", fillcolor="#e78d4b"] ;
25 -> 26 ;
27 [label="Department_Sales <= 0.5\ngini = 0.299\nsamples = 175\nvalue = [143, 32]", fillcolor="#eb9d65"] ;
26 -> 27 ;
28 [label="Age <= -0.284\ngini = 0.383\nsamples = 120\nvalue = [89, 31]", fillcolor="#eead7e"] ;
27 -> 28 ;
29 [label="PercentSalaryHike <= -0.204\ngini = 0.498\nsamples = 30\nvalue = [14, 16]", fillcolor="#e6f3fc"] ;
28 -> 29 ;
30 [label="gini = 0.26\nsamples = 13\nvalue = [2, 11]", fillcolor="#5dafea"] ;
29 -> 30 ;
31 [label="gini = 0.415\nsamples = 17\nvalue = [12, 5]", fillcolor="#f0b58b"] ;
29 -> 31 ;
32 [label="EducationField_Medical <= 0.5\ngini = 0.278\nsamples = 90\nvalue = [75, 15]", fillcolor="#ea9a61"] ;
28 -> 32 ;
33 [label="DistanceFromHome <= 1.085\ngini = 0.101\nsamples = 56\nvalue = [53, 3]", fillcolor="#e68844"] ;
32 -> 33 ;
34 [label="gini = 0.0\nsamples = 43\nvalue = [43, 0]", fillcolor="#e58139"] ;
33 -> 34 ;
35 [label="gini = 0.355\nsamples = 13\nvalue = [10, 3]", fillcolor="#eda774"] ;
33 -> 35 ;
36 [label="TrainingTimesLastYear <= -0.233\ngini = 0.457\nsamples = 34\nvalue = [22, 12]", fillcolor="#f3c6a5"] ;
32 -> 36 ;
37 [label="gini = 0.484\nsamples = 17\nvalue = [7, 10]", fillcolor="#c4e2f7"] ;
36 -> 37 ;
38 [label="gini = 0.208\nsamples = 17\nvalue = [15, 2]", fillcolor="#e89253"] ;
36 -> 38 ;
39 [label="MonthlyIncome <= 0.243\ngini = 0.036\nsamples = 55\nvalue = [54, 1]", fillcolor="#e5833d"] ;
27 -> 39 ;
40 [label="gini = 0.0\nsamples = 45\nvalue = [45, 0]", fillcolor="#e58139"] ;
39 -> 40 ;
41 [label="gini = 0.18\nsamples = 10\nvalue = [9, 1]", fillcolor="#e88f4f"] ;
39 -> 41 ;
42 [label="YearsAtCompany <= 3.983\ngini = 0.132\nsamples = 1379\nvalue = [1281, 98]", fillcolor="#e78b48"] ;
26 -> 42 ;
43 [label="TotalWorkingYears <= 0.018\ngini = 0.125\nsamples = 1363\nvalue = [1272, 91]", fillcolor="#e78a47"] ;
42 -> 43 ;
44 [label="JobRole_Research Scientist <= 0.5\ngini = 0.161\nsamples = 860\nvalue = [784, 76]", fillcolor="#e88d4c"] ;
43 -> 44 ;
45 [label="StockOptionLevel_High <= 0.5\ngini = 0.133\nsamples = 685\nvalue = [636, 49]", fillcolor="#e78b48"] ;
44 -> 45 ;
46 [label="JobSatisfaction_High <= 0.5\ngini = 0.116\nsamples = 632\nvalue = [593, 39]", fillcolor="#e78946"] ;
45 -> 46 ;
47 [label="NumCompaniesWorked <= 0.317\ngini = 0.069\nsamples = 444\nvalue = [428, 16]", fillcolor="#e68640"] ;
46 -> 47 ;
48 [label="YearsAtCompany <= 0.405\ngini = 0.039\nsamples = 401\nvalue = [393, 8]", fillcolor="#e6843d"] ;
47 -> 48 ;
49 [label="JobRole_Healthcare Representative <= 0.5\ngini = 0.012\nsamples = 329\nvalue = [327, 2]", fillcolor="#e5823a"] ;
48 -> 49 ;
50 [label="gini = 0.0\nsamples = 286\nvalue = [286, 0]", fillcolor="#e58139"] ;
49 -> 50 ;
51 [label="MaritalStatus_Married <= 0.5\ngini = 0.089\nsamples = 43\nvalue = [41, 2]", fillcolor="#e68743"] ;
49 -> 51 ;
52 [label="gini = 0.298\nsamples = 11\nvalue = [9, 2]", fillcolor="#eb9d65"] ;
51 -> 52 ;
53 [label="gini = 0.0\nsamples = 32\nvalue = [32, 0]", fillcolor="#e58139"] ;
51 -> 53 ;
54 [label="StockOptionLevel_Medium <= 0.5\ngini = 0.153\nsamples = 72\nvalue = [66, 6]", fillcolor="#e78c4b"] ;
48 -> 54 ;
55 [label="gini = 0.0\nsamples = 49\nvalue = [49, 0]", fillcolor="#e58139"] ;
54 -> 55 ;
56 [label="Department_Research & Development <= 0.5\ngini = 0.386\nsamples = 23\nvalue = [17, 6]", fillcolor="#eead7f"] ;
54 -> 56 ;
57 [label="gini = 0.26\nsamples = 13\nvalue = [11, 2]", fillcolor="#ea985d"] ;
56 -> 57 ;
58 [label="gini = 0.48\nsamples = 10\nvalue = [6, 4]", fillcolor="#f6d5bd"] ;
56 -> 58 ;
59 [label="MonthlyIncome <= -0.401\ngini = 0.303\nsamples = 43\nvalue = [35, 8]", fillcolor="#eb9e66"] ;
47 -> 59 ;
60 [label="gini = 0.0\nsamples = 23\nvalue = [23, 0]", fillcolor="#e58139"] ;
59 -> 60 ;
61 [label="WorkLifeBalance_Better <= 0.5\ngini = 0.48\nsamples = 20\nvalue = [12, 8]", fillcolor="#f6d5bd"] ;
59 -> 61 ;
62 [label="gini = 0.42\nsamples = 10\nvalue = [7, 3]", fillcolor="#f0b78e"] ;
61 -> 62 ;
63 [label="gini = 0.5\nsamples = 10\nvalue = [5, 5]", fillcolor="#ffffff"] ;
61 -> 63 ;
64 [label="JobRole_Research Director <= 0.5\ngini = 0.215\nsamples = 188\nvalue = [165, 23]", fillcolor="#e99355"] ;
46 -> 64 ;
65 [label="PercentSalaryHike <= 1.7\ngini = 0.175\nsamples = 176\nvalue = [159, 17]", fillcolor="#e88e4e"] ;
64 -> 65 ;
66 [label="DistanceFromHome <= 0.592\ngini = 0.135\nsamples = 165\nvalue = [153, 12]", fillcolor="#e78b49"] ;
65 -> 66 ;
67 [label="YearsWithCurrManager <= -0.451\ngini = 0.077\nsamples = 124\nvalue = [119, 5]", fillcolor="#e68641"] ;
66 -> 67 ;
68 [label="EnvironmentSatisfaction_Very High <= 0.5\ngini = 0.183\nsamples = 49\nvalue = [44, 5]", fillcolor="#e88f50"] ;
67 -> 68 ;
69 [label="Department_Sales <= 0.5\ngini = 0.053\nsamples = 37\nvalue = [36, 1]", fillcolor="#e6843e"] ;
68 -> 69 ;
70 [label="gini = 0.0\nsamples = 27\nvalue = [27, 0]", fillcolor="#e58139"] ;
69 -> 70 ;
71 [label="gini = 0.18\nsamples = 10\nvalue = [9, 1]", fillcolor="#e88f4f"] ;
69 -> 71 ;
72 [label="gini = 0.444\nsamples = 12\nvalue = [8, 4]", fillcolor="#f2c09c"] ;
68 -> 72 ;
73 [label="gini = 0.0\nsamples = 75\nvalue = [75, 0]", fillcolor="#e58139"] ;
67 -> 73 ;
74 [label="DistanceFromHome <= 0.9\ngini = 0.283\nsamples = 41\nvalue = [34, 7]", fillcolor="#ea9b62"] ;
66 -> 74 ;
75 [label="gini = 0.5\nsamples = 10\nvalue = [5, 5]", fillcolor="#ffffff"] ;
74 -> 75 ;
76 [label="YearsSinceLastPromotion <= 1.179\ngini = 0.121\nsamples = 31\nvalue = [29, 2]", fillcolor="#e78a47"] ;
74 -> 76 ;
77 [label="gini = 0.0\nsamples = 21\nvalue = [21, 0]", fillcolor="#e58139"] ;
76 -> 77 ;
78 [label="gini = 0.32\nsamples = 10\nvalue = [8, 2]", fillcolor="#eca06a"] ;
76 -> 78 ;
79 [label="gini = 0.496\nsamples = 11\nvalue = [6, 5]", fillcolor="#fbeade"] ;
65 -> 79 ;
80 [label="gini = 0.5\nsamples = 12\nvalue = [6, 6]", fillcolor="#ffffff"] ;
64 -> 80 ;
81 [label="TotalWorkingYears <= -0.363\ngini = 0.306\nsamples = 53\nvalue = [43, 10]", fillcolor="#eb9e67"] ;
45 -> 81 ;
82 [label="JobLevel_Employee <= 0.5\ngini = 0.136\nsamples = 41\nvalue = [38, 3]", fillcolor="#e78b49"] ;
81 -> 82 ;
83 [label="gini = 0.0\nsamples = 30\nvalue = [30, 0]", fillcolor="#e58139"] ;
82 -> 83 ;
84 [label="gini = 0.397\nsamples = 11\nvalue = [8, 3]", fillcolor="#efb083"] ;
82 -> 84 ;
85 [label="gini = 0.486\nsamples = 12\nvalue = [5, 7]", fillcolor="#c6e3f8"] ;
81 -> 85 ;
86 [label="DistanceFromHome <= 1.394\ngini = 0.261\nsamples = 175\nvalue = [148, 27]", fillcolor="#ea985d"] ;
44 -> 86 ;
87 [label="EnvironmentSatisfaction_Low <= 0.5\ngini = 0.222\nsamples = 165\nvalue = [144, 21]", fillcolor="#e99356"] ;
86 -> 87 ;
88 [label="WorkLifeBalance_Good <= 0.5\ngini = 0.109\nsamples = 121\nvalue = [114, 7]", fillcolor="#e78945"] ;
87 -> 88 ;
89 [label="Age <= -1.159\ngini = 0.021\nsamples = 96\nvalue = [95, 1]", fillcolor="#e5823b"] ;
88 -> 89 ;
90 [label="gini = 0.18\nsamples = 10\nvalue = [9, 1]", fillcolor="#e88f4f"] ;
89 -> 90 ;
91 [label="gini = 0.0\nsamples = 86\nvalue = [86, 0]", fillcolor="#e58139"] ;
89 -> 91 ;
92 [label="EnvironmentSatisfaction_Very High <= 0.5\ngini = 0.365\nsamples = 25\nvalue = [19, 6]", fillcolor="#eda978"] ;
88 -> 92 ;
93 [label="gini = 0.496\nsamples = 11\nvalue = [5, 6]", fillcolor="#deeffb"] ;
92 -> 93 ;
94 [label="gini = 0.0\nsamples = 14\nvalue = [14, 0]", fillcolor="#e58139"] ;
92 -> 94 ;
95 [label="TrainingTimesLastYear <= -0.233\ngini = 0.434\nsamples = 44\nvalue = [30, 14]", fillcolor="#f1bc95"] ;
87 -> 95 ;
96 [label="gini = 0.0\nsamples = 19\nvalue = [19, 0]", fillcolor="#e58139"] ;
95 -> 96 ;
97 [label="EducationField_Medical <= 0.5\ngini = 0.493\nsamples = 25\nvalue = [11, 14]", fillcolor="#d5eaf9"] ;
95 -> 97 ;
98 [label="gini = 0.397\nsamples = 11\nvalue = [8, 3]", fillcolor="#efb083"] ;
97 -> 98 ;
99 [label="gini = 0.337\nsamples = 14\nvalue = [3, 11]", fillcolor="#6fb8ec"] ;
97 -> 99 ;
100 [label="gini = 0.48\nsamples = 10\nvalue = [4, 6]", fillcolor="#bddef6"] ;
86 -> 100 ;
101 [label="EducationField_Life Sciences <= 0.5\ngini = 0.058\nsamples = 503\nvalue = [488, 15]", fillcolor="#e6853f"] ;
43 -> 101 ;
102 [label="PercentSalaryHike <= -0.747\ngini = 0.103\nsamples = 275\nvalue = [260, 15]", fillcolor="#e68844"] ;
101 -> 102 ;
103 [label="MonthlyIncome <= -0.025\ngini = 0.226\nsamples = 77\nvalue = [67, 10]", fillcolor="#e99457"] ;
102 -> 103 ;
104 [label="EnvironmentSatisfaction_Very High <= 0.5\ngini = 0.357\nsamples = 43\nvalue = [33, 10]", fillcolor="#eda775"] ;
103 -> 104 ;
105 [label="JobSatisfaction_Very High <= 0.5\ngini = 0.219\nsamples = 32\nvalue = [28, 4]", fillcolor="#e99355"] ;
104 -> 105 ;
106 [label="gini = 0.0\nsamples = 21\nvalue = [21, 0]", fillcolor="#e58139"] ;
105 -> 106 ;
107 [label="gini = 0.463\nsamples = 11\nvalue = [7, 4]", fillcolor="#f4c9aa"] ;
105 -> 107 ;
108 [label="gini = 0.496\nsamples = 11\nvalue = [5, 6]", fillcolor="#deeffb"] ;
104 -> 108 ;
109 [label="gini = 0.0\nsamples = 34\nvalue = [34, 0]", fillcolor="#e58139"] ;
103 -> 109 ;
110 [label="EnvironmentSatisfaction_Medium <= 0.5\ngini = 0.049\nsamples = 198\nvalue = [193, 5]", fillcolor="#e6843e"] ;
102 -> 110 ;
111 [label="gini = 0.0\nsamples = 154\nvalue = [154, 0]", fillcolor="#e58139"] ;
110 -> 111 ;
112 [label="StockOptionLevel_Medium <= 0.5\ngini = 0.201\nsamples = 44\nvalue = [39, 5]", fillcolor="#e89152"] ;
110 -> 112 ;
113 [label="MonthlyIncome <= -0.797\ngini = 0.057\nsamples = 34\nvalue = [33, 1]", fillcolor="#e6853f"] ;
112 -> 113 ;
114 [label="gini = 0.18\nsamples = 10\nvalue = [9, 1]", fillcolor="#e88f4f"] ;
113 -> 114 ;
115 [label="gini = 0.0\nsamples = 24\nvalue = [24, 0]", fillcolor="#e58139"] ;
113 -> 115 ;
116 [label="gini = 0.48\nsamples = 10\nvalue = [6, 4]", fillcolor="#f6d5bd"] ;
112 -> 116 ;
117 [label="gini = 0.0\nsamples = 228\nvalue = [228, 0]", fillcolor="#e58139"] ;
101 -> 117 ;
118 [label="gini = 0.492\nsamples = 16\nvalue = [9, 7]", fillcolor="#f9e3d3"] ;
42 -> 118 ;
119 [label="EnvironmentSatisfaction_Low <= 0.5\ngini = 0.308\nsamples = 447\nvalue = [362, 85]", fillcolor="#eb9f67"] ;
25 -> 119 ;
120 [label="MonthlyIncome <= -0.888\ngini = 0.242\nsamples = 363\nvalue = [312, 51]", fillcolor="#e99659"] ;
119 -> 120 ;
121 [label="DistanceFromHome <= -0.087\ngini = 0.499\nsamples = 31\nvalue = [15, 16]", fillcolor="#f3f9fd"] ;
120 -> 121 ;
122 [label="gini = 0.388\nsamples = 19\nvalue = [14, 5]", fillcolor="#eeae80"] ;
121 -> 122 ;
123 [label="gini = 0.153\nsamples = 12\nvalue = [1, 11]", fillcolor="#4ba6e7"] ;
121 -> 123 ;
124 [label="JobRole_Research Director <= 0.5\ngini = 0.189\nsamples = 332\nvalue = [297, 35]", fillcolor="#e89050"] ;
120 -> 124 ;
125 [label="BusinessTravel_Travel_Frequently <= 0.5\ngini = 0.166\nsamples = 318\nvalue = [289, 29]", fillcolor="#e88e4d"] ;
124 -> 125 ;
126 [label="Age <= 1.903\ngini = 0.118\nsamples = 270\nvalue = [253, 17]", fillcolor="#e78946"] ;
125 -> 126 ;
127 [label="WorkLifeBalance_Bad <= 0.5\ngini = 0.089\nsamples = 257\nvalue = [245, 12]", fillcolor="#e68743"] ;
126 -> 127 ;
128 [label="EnvironmentSatisfaction_Medium <= 0.5\ngini = 0.058\nsamples = 233\nvalue = [226, 7]", fillcolor="#e6853f"] ;
127 -> 128 ;
129 [label="NumCompaniesWorked <= 1.116\ngini = 0.021\nsamples = 188\nvalue = [186, 2]", fillcolor="#e5823b"] ;
128 -> 129 ;
130 [label="YearsSinceLastPromotion <= -0.523\ngini = 0.093\nsamples = 41\nvalue = [39, 2]", fillcolor="#e68743"] ;
129 -> 130 ;
131 [label="gini = 0.26\nsamples = 13\nvalue = [11, 2]", fillcolor="#ea985d"] ;
130 -> 131 ;
132 [label="gini = 0.0\nsamples = 28\nvalue = [28, 0]", fillcolor="#e58139"] ;
130 -> 132 ;
133 [label="gini = 0.0\nsamples = 147\nvalue = [147, 0]", fillcolor="#e58139"] ;
129 -> 133 ;
134 [label="JobSatisfaction_Low <= 0.5\ngini = 0.198\nsamples = 45\nvalue = [40, 5]", fillcolor="#e89152"] ;
128 -> 134 ;
135 [label="Age <= -0.175\ngini = 0.056\nsamples = 35\nvalue = [34, 1]", fillcolor="#e6853f"] ;
134 -> 135 ;
136 [label="gini = 0.18\nsamples = 10\nvalue = [9, 1]", fillcolor="#e88f4f"] ;
135 -> 136 ;
137 [label="gini = 0.0\nsamples = 25\nvalue = [25, 0]", fillcolor="#e58139"] ;
135 -> 137 ;
138 [label="gini = 0.48\nsamples = 10\nvalue = [6, 4]", fillcolor="#f6d5bd"] ;
134 -> 138 ;
139 [label="DistanceFromHome <= -0.025\ngini = 0.33\nsamples = 24\nvalue = [19, 5]", fillcolor="#eca26d"] ;
127 -> 139 ;
140 [label="gini = 0.0\nsamples = 13\nvalue = [13, 0]", fillcolor="#e58139"] ;
139 -> 140 ;
141 [label="gini = 0.496\nsamples = 11\nvalue = [6, 5]", fillcolor="#fbeade"] ;
139 -> 141 ;
142 [label="gini = 0.473\nsamples = 13\nvalue = [8, 5]", fillcolor="#f5d0b5"] ;
126 -> 142 ;
143 [label="JobSatisfaction_High <= 0.5\ngini = 0.375\nsamples = 48\nvalue = [36, 12]", fillcolor="#eeab7b"] ;
125 -> 143 ;
144 [label="TotalWorkingYears <= -0.299\ngini = 0.069\nsamples = 28\nvalue = [27, 1]", fillcolor="#e68640"] ;
143 -> 144 ;
145 [label="gini = 0.18\nsamples = 10\nvalue = [9, 1]", fillcolor="#e88f4f"] ;
144 -> 145 ;
146 [label="gini = 0.0\nsamples = 18\nvalue = [18, 0]", fillcolor="#e58139"] ;
144 -> 146 ;
147 [label="DistanceFromHome <= -0.149\ngini = 0.495\nsamples = 20\nvalue = [9, 11]", fillcolor="#dbedfa"] ;
143 -> 147 ;
148 [label="gini = 0.32\nsamples = 10\nvalue = [2, 8]", fillcolor="#6ab6ec"] ;
147 -> 148 ;
149 [label="gini = 0.42\nsamples = 10\nvalue = [7, 3]", fillcolor="#f0b78e"] ;
147 -> 149 ;
150 [label="gini = 0.49\nsamples = 14\nvalue = [8, 6]", fillcolor="#f8e0ce"] ;
124 -> 150 ;
151 [label="Age <= 0.481\ngini = 0.482\nsamples = 84\nvalue = [50, 34]", fillcolor="#f7d7c0"] ;
119 -> 151 ;
152 [label="NumCompaniesWorked <= 1.916\ngini = 0.486\nsamples = 53\nvalue = [22, 31]", fillcolor="#c6e3f7"] ;
151 -> 152 ;
153 [label="MonthlyIncome <= 0.042\ngini = 0.414\nsamples = 41\nvalue = [12, 29]", fillcolor="#8bc6f0"] ;
152 -> 153 ;
154 [label="NumCompaniesWorked <= 1.116\ngini = 0.083\nsamples = 23\nvalue = [1, 22]", fillcolor="#42a1e6"] ;
153 -> 154 ;
155 [label="gini = 0.18\nsamples = 10\nvalue = [1, 9]", fillcolor="#4fa8e8"] ;
154 -> 155 ;
156 [label="gini = 0.0\nsamples = 13\nvalue = [0, 13]", fillcolor="#399de5"] ;
154 -> 156 ;
157 [label="gini = 0.475\nsamples = 18\nvalue = [11, 7]", fillcolor="#f6d1b7"] ;
153 -> 157 ;
158 [label="gini = 0.278\nsamples = 12\nvalue = [10, 2]", fillcolor="#ea9a61"] ;
152 -> 158 ;
159 [label="TotalWorkingYears <= 0.971\ngini = 0.175\nsamples = 31\nvalue = [28, 3]", fillcolor="#e88e4e"] ;
151 -> 159 ;
160 [label="gini = 0.42\nsamples = 10\nvalue = [7, 3]", fillcolor="#f0b78e"] ;
159 -> 160 ;
161 [label="gini = 0.0\nsamples = 21\nvalue = [21, 0]", fillcolor="#e58139"] ;
159 -> 161 ;
162 [label="Age <= -0.394\ngini = 0.338\nsamples = 888\nvalue = [697, 191]", fillcolor="#eca46f"] ;
24 -> 162 ;
163 [label="YearsAtCompany <= -0.734\ngini = 0.438\nsamples = 339\nvalue = [229, 110]", fillcolor="#f1be98"] ;
162 -> 163 ;
164 [label="NumCompaniesWorked <= -0.483\ngini = 0.479\nsamples = 73\nvalue = [29, 44]", fillcolor="#bcdef6"] ;
163 -> 164 ;
165 [label="EducationField_Life Sciences <= 0.5\ngini = 0.42\nsamples = 30\nvalue = [21, 9]", fillcolor="#f0b78e"] ;
164 -> 165 ;
166 [label="gini = 0.5\nsamples = 18\nvalue = [9, 9]", fillcolor="#ffffff"] ;
165 -> 166 ;
167 [label="gini = 0.0\nsamples = 12\nvalue = [12, 0]", fillcolor="#e58139"] ;
165 -> 167 ;
168 [label="TotalWorkingYears <= -0.617\ngini = 0.303\nsamples = 43\nvalue = [8, 35]", fillcolor="#66b3eb"] ;
164 -> 168 ;
169 [label="gini = 0.0\nsamples = 25\nvalue = [0, 25]", fillcolor="#399de5"] ;
168 -> 169 ;
170 [label="gini = 0.494\nsamples = 18\nvalue = [8, 10]", fillcolor="#d7ebfa"] ;
168 -> 170 ;
171 [label="JobSatisfaction_Very High <= 0.5\ngini = 0.373\nsamples = 266\nvalue = [200, 66]", fillcolor="#eeab7a"] ;
163 -> 171 ;
172 [label="EnvironmentSatisfaction_Low <= 0.5\ngini = 0.442\nsamples = 179\nvalue = [120, 59]", fillcolor="#f2bf9a"] ;
171 -> 172 ;
173 [label="BusinessTravel_Travel_Frequently <= 0.5\ngini = 0.378\nsamples = 146\nvalue = [109, 37]", fillcolor="#eeac7c"] ;
172 -> 173 ;
174 [label="PercentSalaryHike <= 0.612\ngini = 0.29\nsamples = 108\nvalue = [89, 19]", fillcolor="#eb9c63"] ;
173 -> 174 ;
175 [label="StockOptionLevel_Low <= 0.5\ngini = 0.213\nsamples = 91\nvalue = [80, 11]", fillcolor="#e99254"] ;
174 -> 175 ;
176 [label="gini = 0.0\nsamples = 53\nvalue = [53, 0]", fillcolor="#e58139"] ;
175 -> 176 ;
177 [label="JobSatisfaction_High <= 0.5\ngini = 0.411\nsamples = 38\nvalue = [27, 11]", fillcolor="#f0b48a"] ;
175 -> 177 ;
178 [label="DistanceFromHome <= 0.036\ngini = 0.08\nsamples = 24\nvalue = [23, 1]", fillcolor="#e68642"] ;
177 -> 178 ;
179 [label="gini = 0.0\nsamples = 14\nvalue = [14, 0]", fillcolor="#e58139"] ;
178 -> 179 ;
180 [label="gini = 0.18\nsamples = 10\nvalue = [9, 1]", fillcolor="#e88f4f"] ;
178 -> 180 ;
181 [label="gini = 0.408\nsamples = 14\nvalue = [4, 10]", fillcolor="#88c4ef"] ;
177 -> 181 ;
182 [label="gini = 0.498\nsamples = 17\nvalue = [9, 8]", fillcolor="#fcf1e9"] ;
174 -> 182 ;
183 [label="PercentSalaryHike <= 0.884\ngini = 0.499\nsamples = 38\nvalue = [20, 18]", fillcolor="#fcf2eb"] ;
173 -> 183 ;
184 [label="PercentSalaryHike <= -0.747\ngini = 0.435\nsamples = 25\nvalue = [8, 17]", fillcolor="#96cbf1"] ;
183 -> 184 ;
185 [label="gini = 0.397\nsamples = 11\nvalue = [8, 3]", fillcolor="#efb083"] ;
184 -> 185 ;
186 [label="gini = 0.0\nsamples = 14\nvalue = [0, 14]", fillcolor="#399de5"] ;
184 -> 186 ;
187 [label="gini = 0.142\nsamples = 13\nvalue = [12, 1]", fillcolor="#e78c49"] ;
183 -> 187 ;
188 [label="EducationField_Life Sciences <= 0.5\ngini = 0.444\nsamples = 33\nvalue = [11, 22]", fillcolor="#9ccef2"] ;
172 -> 188 ;
189 [label="gini = 0.475\nsamples = 18\nvalue = [11, 7]", fillcolor="#f6d1b7"] ;
188 -> 189 ;
190 [label="gini = 0.0\nsamples = 15\nvalue = [0, 15]", fillcolor="#399de5"] ;
188 -> 190 ;
191 [label="YearsSinceLastPromotion <= 1.024\ngini = 0.148\nsamples = 87\nvalue = [80, 7]", fillcolor="#e78c4a"] ;
171 -> 191 ;
192 [label="TotalWorkingYears <= -0.871\ngini = 0.076\nsamples = 76\nvalue = [73, 3]", fillcolor="#e68641"] ;
191 -> 192 ;
193 [label="gini = 0.42\nsamples = 10\nvalue = [7, 3]", fillcolor="#f0b78e"] ;
192 -> 193 ;
194 [label="gini = 0.0\nsamples = 66\nvalue = [66, 0]", fillcolor="#e58139"] ;
192 -> 194 ;
195 [label="gini = 0.463\nsamples = 11\nvalue = [7, 4]", fillcolor="#f4c9aa"] ;
191 -> 195 ;
196 [label="JobSatisfaction_Low <= 0.5\ngini = 0.252\nsamples = 549\nvalue = [468, 81]", fillcolor="#ea975b"] ;
162 -> 196 ;
197 [label="NumCompaniesWorked <= 1.916\ngini = 0.202\nsamples = 455\nvalue = [403, 52]", fillcolor="#e89153"] ;
196 -> 197 ;
198 [label="YearsAtCompany <= 2.601\ngini = 0.174\nsamples = 425\nvalue = [384, 41]", fillcolor="#e88e4e"] ;
197 -> 198 ;
199 [label="TrainingTimesLastYear <= -1.008\ngini = 0.159\nsamples = 414\nvalue = [378, 36]", fillcolor="#e78d4c"] ;
198 -> 199 ;
200 [label="TotalWorkingYears <= -0.236\ngini = 0.381\nsamples = 39\nvalue = [29, 10]", fillcolor="#eeac7d"] ;
199 -> 200 ;
201 [label="gini = 0.5\nsamples = 16\nvalue = [8, 8]", fillcolor="#ffffff"] ;
200 -> 201 ;
202 [label="WorkLifeBalance_Better <= 0.5\ngini = 0.159\nsamples = 23\nvalue = [21, 2]", fillcolor="#e78d4c"] ;
200 -> 202 ;
203 [label="gini = 0.32\nsamples = 10\nvalue = [8, 2]", fillcolor="#eca06a"] ;
202 -> 203 ;
204 [label="gini = 0.0\nsamples = 13\nvalue = [13, 0]", fillcolor="#e58139"] ;
202 -> 204 ;
205 [label="MonthlyIncome <= -0.951\ngini = 0.129\nsamples = 375\nvalue = [349, 26]", fillcolor="#e78a48"] ;
199 -> 205 ;
206 [label="gini = 0.463\nsamples = 11\nvalue = [7, 4]", fillcolor="#f4c9aa"] ;
205 -> 206 ;
207 [label="YearsAtCompany <= -1.059\ngini = 0.114\nsamples = 364\nvalue = [342, 22]", fillcolor="#e78946"] ;
205 -> 207 ;
208 [label="gini = 0.463\nsamples = 11\nvalue = [7, 4]", fillcolor="#f4c9aa"] ;
207 -> 208 ;
209 [label="JobRole_Research Director <= 0.5\ngini = 0.097\nsamples = 353\nvalue = [335, 18]", fillcolor="#e68844"] ;
207 -> 209 ;
210 [label="Age <= 1.903\ngini = 0.075\nsamples = 332\nvalue = [319, 13]", fillcolor="#e68641"] ;
209 -> 210 ;
211 [label="JobSatisfaction_Medium <= 0.5\ngini = 0.05\nsamples = 309\nvalue = [301, 8]", fillcolor="#e6843e"] ;
210 -> 211 ;
212 [label="Department_Human Resources <= 0.5\ngini = 0.016\nsamples = 245\nvalue = [243, 2]", fillcolor="#e5823b"] ;
211 -> 212 ;
213 [label="gini = 0.0\nsamples = 231\nvalue = [231, 0]", fillcolor="#e58139"] ;
212 -> 213 ;
214 [label="gini = 0.245\nsamples = 14\nvalue = [12, 2]", fillcolor="#e9965a"] ;
212 -> 214 ;
215 [label="JobLevel_Apprentice <= 0.5\ngini = 0.17\nsamples = 64\nvalue = [58, 6]", fillcolor="#e88e4d"] ;
211 -> 215 ;
216 [label="gini = 0.0\nsamples = 41\nvalue = [41, 0]", fillcolor="#e58139"] ;
215 -> 216 ;
217 [label="EnvironmentSatisfaction_Very High <= 0.5\ngini = 0.386\nsamples = 23\nvalue = [17, 6]", fillcolor="#eead7f"] ;
215 -> 217 ;
218 [label="gini = 0.496\nsamples = 11\nvalue = [5, 6]", fillcolor="#deeffb"] ;
217 -> 218 ;
219 [label="gini = 0.0\nsamples = 12\nvalue = [12, 0]", fillcolor="#e58139"] ;
217 -> 219 ;
220 [label="TotalWorkingYears <= 1.415\ngini = 0.34\nsamples = 23\nvalue = [18, 5]", fillcolor="#eca470"] ;
210 -> 220 ;
221 [label="gini = 0.5\nsamples = 10\nvalue = [5, 5]", fillcolor="#ffffff"] ;
220 -> 221 ;
222 [label="gini = 0.0\nsamples = 13\nvalue = [13, 0]", fillcolor="#e58139"] ;
220 -> 222 ;
223 [label="Age <= -0.011\ngini = 0.363\nsamples = 21\nvalue = [16, 5]", fillcolor="#eda877"] ;
209 -> 223 ;
224 [label="gini = 0.42\nsamples = 10\nvalue = [7, 3]", fillcolor="#f0b78e"] ;
223 -> 224 ;
225 [label="gini = 0.298\nsamples = 11\nvalue = [9, 2]", fillcolor="#eb9d65"] ;
223 -> 225 ;
226 [label="gini = 0.496\nsamples = 11\nvalue = [6, 5]", fillcolor="#fbeade"] ;
198 -> 226 ;
227 [label="DistanceFromHome <= -0.211\ngini = 0.464\nsamples = 30\nvalue = [19, 11]", fillcolor="#f4caac"] ;
197 -> 227 ;
228 [label="DistanceFromHome <= -0.828\ngini = 0.495\nsamples = 20\nvalue = [9, 11]", fillcolor="#dbedfa"] ;
227 -> 228 ;
229 [label="gini = 0.42\nsamples = 10\nvalue = [7, 3]", fillcolor="#f0b78e"] ;
228 -> 229 ;
230 [label="gini = 0.32\nsamples = 10\nvalue = [2, 8]", fillcolor="#6ab6ec"] ;
228 -> 230 ;
231 [label="gini = 0.0\nsamples = 10\nvalue = [10, 0]", fillcolor="#e58139"] ;
227 -> 231 ;
232 [label="DistanceFromHome <= 0.653\ngini = 0.427\nsamples = 94\nvalue = [65, 29]", fillcolor="#f1b991"] ;
196 -> 232 ;
233 [label="MonthlyIncome <= 0.073\ngini = 0.338\nsamples = 79\nvalue = [62, 17]", fillcolor="#eca46f"] ;
232 -> 233 ;
234 [label="Age <= 0.755\ngini = 0.44\nsamples = 52\nvalue = [35, 17]", fillcolor="#f2be99"] ;
233 -> 234 ;
235 [label="MonthlyIncome <= -0.591\ngini = 0.497\nsamples = 28\nvalue = [13, 15]", fillcolor="#e5f2fc"] ;
234 -> 235 ;
236 [label="gini = 0.278\nsamples = 12\nvalue = [10, 2]", fillcolor="#ea9a61"] ;
235 -> 236 ;
237 [label="gini = 0.305\nsamples = 16\nvalue = [3, 13]", fillcolor="#67b4eb"] ;
235 -> 237 ;
238 [label="PercentSalaryHike <= 0.068\ngini = 0.153\nsamples = 24\nvalue = [22, 2]", fillcolor="#e78c4b"] ;
234 -> 238 ;
239 [label="gini = 0.0\nsamples = 14\nvalue = [14, 0]", fillcolor="#e58139"] ;
238 -> 239 ;
240 [label="gini = 0.32\nsamples = 10\nvalue = [8, 2]", fillcolor="#eca06a"] ;
238 -> 240 ;
241 [label="gini = 0.0\nsamples = 27\nvalue = [27, 0]", fillcolor="#e58139"] ;
233 -> 241 ;
242 [label="gini = 0.32\nsamples = 15\nvalue = [3, 12]", fillcolor="#6ab6ec"] ;
232 -> 242 ;
}