digraph Tree {
node [shape=box, style="filled", color="black"] ;
0 [label="Education <= 0.096\nmse = 0.136\nsamples = 3087\nvalue = 0.837", fillcolor="#eb9e67"] ;
1 [label="WorkLifeBalance <= -0.754\nmse = 0.128\nsamples = 1999\nvalue = 0.849", fillcolor="#eb9c64"] ;
0 -> 1 [labeldistance=2.5, labelangle=45, headlabel="True"] ;
2 [label="BusinessTravel <= 1.684\nmse = 0.106\nsamples = 532\nvalue = 0.88", fillcolor="#e9975b"] ;
1 -> 2 ;
3 [label="Department <= -1.129\nmse = 0.112\nsamples = 490\nvalue = 0.871", fillcolor="#ea985d"] ;
2 -> 3 ;
4 [label="EnvironmentSatisfaction <= -1.463\nmse = 0.171\nsamples = 55\nvalue = 0.782", fillcolor="#eda877"] ;
3 -> 4 ;
5 [label="mse = 0.0\nsamples = 15\nvalue = 1.0", fillcolor="#e58139"] ;
4 -> 5 ;
6 [label="WorkLifeBalance <= -0.865\nmse = 0.21\nsamples = 40\nvalue = 0.7", fillcolor="#f0b78e"] ;
4 -> 6 ;
7 [label="WorkLifeBalance <= -0.931\nmse = 0.243\nsamples = 24\nvalue = 0.583", fillcolor="#f4ccaf"] ;
6 -> 7 ;
8 [label="mse = 0.21\nsamples = 10\nvalue = 0.7", fillcolor="#f0b78e"] ;
7 -> 8 ;
9 [label="mse = 0.25\nsamples = 14\nvalue = 0.5", fillcolor="#f8dbc6"] ;
7 -> 9 ;
10 [label="mse = 0.109\nsamples = 16\nvalue = 0.875", fillcolor="#ea985c"] ;
6 -> 10 ;
11 [label="WorkLifeBalance <= -0.77\nmse = 0.103\nsamples = 435\nvalue = 0.883", fillcolor="#e9965a"] ;
3 -> 11 ;
12 [label="WorkLifeBalance <= -0.805\nmse = 0.11\nsamples = 407\nvalue = 0.875", fillcolor="#ea985c"] ;
11 -> 12 ;
13 [label="WorkLifeBalance <= -0.815\nmse = 0.1\nsamples = 338\nvalue = 0.888", fillcolor="#e99559"] ;
12 -> 13 ;
14 [label="JobSatisfaction <= -0.584\nmse = 0.107\nsamples = 313\nvalue = 0.879", fillcolor="#ea975b"] ;
13 -> 14 ;
15 [label="JobSatisfaction <= -0.707\nmse = 0.135\nsamples = 99\nvalue = 0.838", fillcolor="#eb9e67"] ;
14 -> 15 ;
16 [label="EnvironmentSatisfaction <= 0.837\nmse = 0.105\nsamples = 84\nvalue = 0.881", fillcolor="#e9965b"] ;
15 -> 16 ;
17 [label="Gender <= -0.439\nmse = 0.067\nsamples = 69\nvalue = 0.928", fillcolor="#e88e4d"] ;
16 -> 17 ;
18 [label="YearsAtCompany <= 6.5\nmse = 0.023\nsamples = 42\nvalue = 0.976", fillcolor="#e68540"] ;
17 -> 18 ;
19 [label="mse = 0.0\nsamples = 32\nvalue = 1.0", fillcolor="#e58139"] ;
18 -> 19 ;
20 [label="mse = 0.09\nsamples = 10\nvalue = 0.9", fillcolor="#e99355"] ;
18 -> 20 ;
21 [label="DistanceFromHome <= -0.235\nmse = 0.126\nsamples = 27\nvalue = 0.852", fillcolor="#eb9c63"] ;
17 -> 21 ;
22 [label="mse = 0.18\nsamples = 17\nvalue = 0.765", fillcolor="#eeab7c"] ;
21 -> 22 ;
23 [label="mse = 0.0\nsamples = 10\nvalue = 1.0", fillcolor="#e58139"] ;
21 -> 23 ;
24 [label="mse = 0.222\nsamples = 15\nvalue = 0.667", fillcolor="#f1bd97"] ;
16 -> 24 ;
25 [label="mse = 0.24\nsamples = 15\nvalue = 0.6", fillcolor="#f4c9aa"] ;
15 -> 25 ;
26 [label="EnvironmentSatisfaction <= 0.618\nmse = 0.092\nsamples = 214\nvalue = 0.897", fillcolor="#e99456"] ;
14 -> 26 ;
27 [label="MonthlyIncome <= 1.5\nmse = 0.108\nsamples = 163\nvalue = 0.877", fillcolor="#ea975c"] ;
26 -> 27 ;
28 [label="EnvironmentSatisfaction <= -0.149\nmse = 0.16\nsamples = 50\nvalue = 0.8", fillcolor="#eca572"] ;
27 -> 28 ;
29 [label="WorkLifeBalance <= -0.901\nmse = 0.114\nsamples = 38\nvalue = 0.868", fillcolor="#ea995e"] ;
28 -> 29 ;
30 [label="mse = 0.0\nsamples = 13\nvalue = 1.0", fillcolor="#e58139"] ;
29 -> 30 ;
31 [label="DistanceFromHome <= -0.235\nmse = 0.16\nsamples = 25\nvalue = 0.8", fillcolor="#eca572"] ;
29 -> 31 ;
32 [label="mse = 0.204\nsamples = 14\nvalue = 0.714", fillcolor="#f0b48a"] ;
31 -> 32 ;
33 [label="mse = 0.083\nsamples = 11\nvalue = 0.909", fillcolor="#e89153"] ;
31 -> 33 ;
34 [label="mse = 0.243\nsamples = 12\nvalue = 0.583", fillcolor="#f4ccaf"] ;
28 -> 34 ;
35 [label="Age <= -0.08\nmse = 0.081\nsamples = 113\nvalue = 0.912", fillcolor="#e89152"] ;
27 -> 35 ;
36 [label="WorkLifeBalance <= -0.907\nmse = 0.02\nsamples = 48\nvalue = 0.979", fillcolor="#e6853f"] ;
35 -> 36 ;
37 [label="mse = 0.071\nsamples = 13\nvalue = 0.923", fillcolor="#e88f4f"] ;
36 -> 37 ;
38 [label="mse = 0.0\nsamples = 35\nvalue = 1.0", fillcolor="#e58139"] ;
36 -> 38 ;
39 [label="JobSatisfaction <= 1.252\nmse = 0.119\nsamples = 65\nvalue = 0.862", fillcolor="#ea9a60"] ;
35 -> 39 ;
40 [label="WorkLifeBalance <= -0.859\nmse = 0.084\nsamples = 54\nvalue = 0.907", fillcolor="#e89253"] ;
39 -> 40 ;
41 [label="EnvironmentSatisfaction <= -0.696\nmse = 0.026\nsamples = 38\nvalue = 0.974", fillcolor="#e68640"] ;
40 -> 41 ;
42 [label="mse = 0.09\nsamples = 10\nvalue = 0.9", fillcolor="#e99355"] ;
41 -> 42 ;
43 [label="mse = 0.0\nsamples = 28\nvalue = 1.0", fillcolor="#e58139"] ;
41 -> 43 ;
44 [label="mse = 0.188\nsamples = 16\nvalue = 0.75", fillcolor="#eeae80"] ;
40 -> 44 ;
45 [label="mse = 0.231\nsamples = 11\nvalue = 0.636", fillcolor="#f3c2a0"] ;
39 -> 45 ;
46 [label="Gender <= -0.439\nmse = 0.038\nsamples = 51\nvalue = 0.961", fillcolor="#e68844"] ;
26 -> 46 ;
47 [label="mse = 0.0\nsamples = 31\nvalue = 1.0", fillcolor="#e58139"] ;
46 -> 47 ;
48 [label="EnvironmentSatisfaction <= 1.439\nmse = 0.09\nsamples = 20\nvalue = 0.9", fillcolor="#e99355"] ;
46 -> 48 ;
49 [label="mse = 0.0\nsamples = 10\nvalue = 1.0", fillcolor="#e58139"] ;
48 -> 49 ;
50 [label="mse = 0.16\nsamples = 10\nvalue = 0.8", fillcolor="#eca572"] ;
48 -> 50 ;
51 [label="mse = 0.0\nsamples = 25\nvalue = 1.0", fillcolor="#e58139"] ;
13 -> 51 ;
52 [label="WorkLifeBalance <= -0.799\nmse = 0.153\nsamples = 69\nvalue = 0.812", fillcolor="#eca36e"] ;
12 -> 52 ;
53 [label="mse = 0.24\nsamples = 10\nvalue = 0.6", fillcolor="#f4c9aa"] ;
52 -> 53 ;
54 [label="StockOptionLevel <= 2.5\nmse = 0.129\nsamples = 59\nvalue = 0.847", fillcolor="#eb9c64"] ;
52 -> 54 ;
55 [label="JobSatisfaction <= -0.462\nmse = 0.08\nsamples = 34\nvalue = 0.912", fillcolor="#e89152"] ;
54 -> 55 ;
56 [label="mse = 0.0\nsamples = 20\nvalue = 1.0", fillcolor="#e58139"] ;
55 -> 56 ;
57 [label="mse = 0.168\nsamples = 14\nvalue = 0.786", fillcolor="#eda876"] ;
55 -> 57 ;
58 [label="Education <= -0.651\nmse = 0.182\nsamples = 25\nvalue = 0.76", fillcolor="#eeac7d"] ;
54 -> 58 ;
59 [label="mse = 0.116\nsamples = 15\nvalue = 0.867", fillcolor="#ea995f"] ;
58 -> 59 ;
60 [label="mse = 0.24\nsamples = 10\nvalue = 0.6", fillcolor="#f4c9aa"] ;
58 -> 60 ;
61 [label="mse = 0.0\nsamples = 28\nvalue = 1.0", fillcolor="#e58139"] ;
11 -> 61 ;
62 [label="WorkLifeBalance <= -0.907\nmse = 0.023\nsamples = 42\nvalue = 0.976", fillcolor="#e68540"] ;
2 -> 62 ;
63 [label="mse = 0.09\nsamples = 10\nvalue = 0.9", fillcolor="#e99355"] ;
62 -> 63 ;
64 [label="mse = 0.0\nsamples = 32\nvalue = 1.0", fillcolor="#e58139"] ;
62 -> 64 ;
65 [label="WorkLifeBalance <= -0.728\nmse = 0.135\nsamples = 1467\nvalue = 0.838", fillcolor="#eb9e67"] ;
1 -> 65 ;
66 [label="EnvironmentSatisfaction <= -0.039\nmse = 0.215\nsamples = 32\nvalue = 0.688", fillcolor="#f1b991"] ;
65 -> 66 ;
67 [label="mse = 0.094\nsamples = 19\nvalue = 0.895", fillcolor="#e99457"] ;
66 -> 67 ;
68 [label="mse = 0.237\nsamples = 13\nvalue = 0.385", fillcolor="#fcf0e7"] ;
66 -> 68 ;
69 [label="EnvironmentSatisfaction <= 1.713\nmse = 0.133\nsamples = 1435\nvalue = 0.842", fillcolor="#eb9d66"] ;
65 -> 69 ;
70 [label="EnvironmentSatisfaction <= -0.258\nmse = 0.137\nsamples = 1351\nvalue = 0.836", fillcolor="#eb9e67"] ;
69 -> 70 ;
71 [label="Gender <= 0.124\nmse = 0.121\nsamples = 704\nvalue = 0.859", fillcolor="#ea9a61"] ;
70 -> 71 ;
72 [label="BusinessTravel <= -0.481\nmse = 0.116\nsamples = 655\nvalue = 0.866", fillcolor="#ea995f"] ;
71 -> 72 ;
73 [label="BusinessTravel <= -1.022\nmse = 0.138\nsamples = 266\nvalue = 0.835", fillcolor="#eb9f68"] ;
72 -> 73 ;
74 [label="WorkLifeBalance <= -0.478\nmse = 0.092\nsamples = 88\nvalue = 0.898", fillcolor="#e99356"] ;
73 -> 74 ;
75 [label="mse = 0.196\nsamples = 15\nvalue = 0.733", fillcolor="#efb184"] ;
74 -> 75 ;
76 [label="JobSatisfaction <= -0.829\nmse = 0.064\nsamples = 73\nvalue = 0.932", fillcolor="#e88d4c"] ;
74 -> 76 ;
77 [label="mse = 0.0\nsamples = 22\nvalue = 1.0", fillcolor="#e58139"] ;
76 -> 77 ;
78 [label="EnvironmentSatisfaction <= -0.696\nmse = 0.088\nsamples = 51\nvalue = 0.902", fillcolor="#e99355"] ;
76 -> 78 ;
79 [label="Department <= -0.871\nmse = 0.132\nsamples = 32\nvalue = 0.844", fillcolor="#eb9d65"] ;
78 -> 79 ;
80 [label="mse = 0.059\nsamples = 16\nvalue = 0.938", fillcolor="#e78c4b"] ;
79 -> 80 ;
81 [label="mse = 0.188\nsamples = 16\nvalue = 0.75", fillcolor="#eeae80"] ;
79 -> 81 ;
82 [label="mse = 0.0\nsamples = 19\nvalue = 1.0", fillcolor="#e58139"] ;
78 -> 82 ;
83 [label="Age <= -0.481\nmse = 0.158\nsamples = 178\nvalue = 0.803", fillcolor="#eca471"] ;
73 -> 83 ;
84 [label="WorkLifeBalance <= -0.39\nmse = 0.179\nsamples = 120\nvalue = 0.767", fillcolor="#eeab7b"] ;
83 -> 84 ;
85 [label="StockOptionLevel <= 1.5\nmse = 0.219\nsamples = 31\nvalue = 0.677", fillcolor="#f1bb94"] ;
84 -> 85 ;
86 [label="mse = 0.249\nsamples = 13\nvalue = 0.538", fillcolor="#f6d4bc"] ;
85 -> 86 ;
87 [label="mse = 0.173\nsamples = 18\nvalue = 0.778", fillcolor="#eda978"] ;
85 -> 87 ;
88 [label="YearsAtCompany <= 6.5\nmse = 0.161\nsamples = 89\nvalue = 0.798", fillcolor="#eda572"] ;
84 -> 88 ;
89 [label="YearsAtCompany <= 4.5\nmse = 0.192\nsamples = 54\nvalue = 0.741", fillcolor="#efb082"] ;
88 -> 89 ;
90 [label="YearsSinceLastPromotion <= 1.5\nmse = 0.15\nsamples = 38\nvalue = 0.816", fillcolor="#eca26d"] ;
89 -> 90 ;
91 [label="WorkLifeBalance <= 0.4\nmse = 0.09\nsamples = 20\nvalue = 0.9", fillcolor="#e99355"] ;
90 -> 91 ;
92 [label="mse = 0.16\nsamples = 10\nvalue = 0.8", fillcolor="#eca572"] ;
91 -> 92 ;
93 [label="mse = 0.0\nsamples = 10\nvalue = 1.0", fillcolor="#e58139"] ;
91 -> 93 ;
94 [label="mse = 0.201\nsamples = 18\nvalue = 0.722", fillcolor="#efb388"] ;
90 -> 94 ;
95 [label="mse = 0.246\nsamples = 16\nvalue = 0.562", fillcolor="#f5d0b5"] ;
89 -> 95 ;
96 [label="BusinessTravel <= -0.751\nmse = 0.101\nsamples = 35\nvalue = 0.886", fillcolor="#e99659"] ;
88 -> 96 ;
97 [label="mse = 0.0\nsamples = 21\nvalue = 1.0", fillcolor="#e58139"] ;
96 -> 97 ;
98 [label="mse = 0.204\nsamples = 14\nvalue = 0.714", fillcolor="#f0b48a"] ;
96 -> 98 ;
99 [label="Department <= -0.485\nmse = 0.106\nsamples = 58\nvalue = 0.879", fillcolor="#e9975b"] ;
83 -> 99 ;
100 [label="Department <= -0.742\nmse = 0.038\nsamples = 25\nvalue = 0.96", fillcolor="#e68844"] ;
99 -> 100 ;
101 [label="mse = 0.09\nsamples = 10\nvalue = 0.9", fillcolor="#e99355"] ;
100 -> 101 ;
102 [label="mse = 0.0\nsamples = 15\nvalue = 1.0", fillcolor="#e58139"] ;
100 -> 102 ;
103 [label="YearsAtCompany <= 6.5\nmse = 0.149\nsamples = 33\nvalue = 0.818", fillcolor="#eca26c"] ;
99 -> 103 ;
104 [label="mse = 0.201\nsamples = 18\nvalue = 0.722", fillcolor="#efb388"] ;
103 -> 104 ;
105 [label="mse = 0.062\nsamples = 15\nvalue = 0.933", fillcolor="#e78d4c"] ;
103 -> 105 ;
106 [label="BusinessTravel <= -0.21\nmse = 0.1\nsamples = 389\nvalue = 0.887", fillcolor="#e99559"] ;
72 -> 106 ;
107 [label="EnvironmentSatisfaction <= -1.134\nmse = 0.04\nsamples = 71\nvalue = 0.958", fillcolor="#e78945"] ;
106 -> 107 ;
108 [label="TotalWorkingYears <= 0.5\nmse = 0.113\nsamples = 23\nvalue = 0.87", fillcolor="#ea985e"] ;
107 -> 108 ;
109 [label="mse = 0.0\nsamples = 12\nvalue = 1.0", fillcolor="#e58139"] ;
108 -> 109 ;
110 [label="mse = 0.198\nsamples = 11\nvalue = 0.727", fillcolor="#efb286"] ;
108 -> 110 ;
111 [label="mse = 0.0\nsamples = 48\nvalue = 1.0", fillcolor="#e58139"] ;
107 -> 111 ;
112 [label="WorkLifeBalance <= 0.931\nmse = 0.112\nsamples = 318\nvalue = 0.871", fillcolor="#ea985d"] ;
106 -> 112 ;
113 [label="MonthlyIncome <= 1.5\nmse = 0.097\nsamples = 256\nvalue = 0.891", fillcolor="#e99558"] ;
112 -> 113 ;
114 [label="Age <= -0.481\nmse = 0.053\nsamples = 89\nvalue = 0.944", fillcolor="#e78b49"] ;
113 -> 114 ;
115 [label="Age <= -0.882\nmse = 0.016\nsamples = 60\nvalue = 0.983", fillcolor="#e6843e"] ;
114 -> 115 ;
116 [label="mse = 0.076\nsamples = 12\nvalue = 0.917", fillcolor="#e89051"] ;
115 -> 116 ;
117 [label="mse = 0.0\nsamples = 48\nvalue = 1.0", fillcolor="#e58139"] ;
115 -> 117 ;
118 [label="EducationField <= -0.519\nmse = 0.119\nsamples = 29\nvalue = 0.862", fillcolor="#ea9a60"] ;
114 -> 118 ;
119 [label="mse = 0.0\nsamples = 11\nvalue = 1.0", fillcolor="#e58139"] ;
118 -> 119 ;
120 [label="mse = 0.173\nsamples = 18\nvalue = 0.778", fillcolor="#eda978"] ;
118 -> 120 ;
121 [label="EnvironmentSatisfaction <= -1.572\nmse = 0.119\nsamples = 167\nvalue = 0.862", fillcolor="#ea9a60"] ;
113 -> 121 ;
122 [label="WorkLifeBalance <= -0.2\nmse = 0.188\nsamples = 20\nvalue = 0.75", fillcolor="#eeae80"] ;
121 -> 122 ;
123 [label="mse = 0.21\nsamples = 10\nvalue = 0.7", fillcolor="#f0b78e"] ;
122 -> 123 ;
124 [label="mse = 0.16\nsamples = 10\nvalue = 0.8", fillcolor="#eca572"] ;
122 -> 124 ;
125 [label="EnvironmentSatisfaction <= -1.025\nmse = 0.107\nsamples = 147\nvalue = 0.878", fillcolor="#ea975c"] ;
121 -> 125 ;
126 [label="Age <= -0.882\nmse = 0.067\nsamples = 69\nvalue = 0.928", fillcolor="#e88e4d"] ;
125 -> 126 ;
127 [label="mse = 0.16\nsamples = 20\nvalue = 0.8", fillcolor="#eca572"] ;
126 -> 127 ;
128 [label="YearsAtCompany <= 2.5\nmse = 0.02\nsamples = 49\nvalue = 0.98", fillcolor="#e6853f"] ;
126 -> 128 ;
129 [label="mse = 0.071\nsamples = 13\nvalue = 0.923", fillcolor="#e88f4f"] ;
128 -> 129 ;
130 [label="mse = 0.0\nsamples = 36\nvalue = 1.0", fillcolor="#e58139"] ;
128 -> 130 ;
131 [label="BusinessTravel <= 0.602\nmse = 0.139\nsamples = 78\nvalue = 0.833", fillcolor="#eb9f68"] ;
125 -> 131 ;
132 [label="DistanceFromHome <= 0.546\nmse = 0.181\nsamples = 38\nvalue = 0.763", fillcolor="#eeac7c"] ;
131 -> 132 ;
133 [label="BusinessTravel <= 0.061\nmse = 0.222\nsamples = 27\nvalue = 0.667", fillcolor="#f1bd97"] ;
132 -> 133 ;
134 [label="mse = 0.16\nsamples = 15\nvalue = 0.8", fillcolor="#eca572"] ;
133 -> 134 ;
135 [label="mse = 0.25\nsamples = 12\nvalue = 0.5", fillcolor="#f8dbc6"] ;
133 -> 135 ;
136 [label="mse = 0.0\nsamples = 11\nvalue = 1.0", fillcolor="#e58139"] ;
132 -> 136 ;
137 [label="YearsAtCompany <= 4.5\nmse = 0.09\nsamples = 40\nvalue = 0.9", fillcolor="#e99355"] ;
131 -> 137 ;
138 [label="mse = 0.0\nsamples = 20\nvalue = 1.0", fillcolor="#e58139"] ;
137 -> 138 ;
139 [label="BusinessTravel <= 1.413\nmse = 0.16\nsamples = 20\nvalue = 0.8", fillcolor="#eca572"] ;
137 -> 139 ;
140 [label="mse = 0.09\nsamples = 10\nvalue = 0.9", fillcolor="#e99355"] ;
139 -> 140 ;
141 [label="mse = 0.21\nsamples = 10\nvalue = 0.7", fillcolor="#f0b78e"] ;
139 -> 141 ;
142 [label="Education <= -0.734\nmse = 0.166\nsamples = 62\nvalue = 0.79", fillcolor="#eda774"] ;
112 -> 142 ;
143 [label="WorkLifeBalance <= 1.491\nmse = 0.099\nsamples = 36\nvalue = 0.889", fillcolor="#e99558"] ;
142 -> 143 ;
144 [label="mse = 0.222\nsamples = 12\nvalue = 0.667", fillcolor="#f1bd97"] ;
143 -> 144 ;
145 [label="mse = 0.0\nsamples = 24\nvalue = 1.0", fillcolor="#e58139"] ;
143 -> 145 ;
146 [label="WorkLifeBalance <= 2.139\nmse = 0.226\nsamples = 26\nvalue = 0.654", fillcolor="#f2bf9b"] ;
142 -> 146 ;
147 [label="mse = 0.25\nsamples = 12\nvalue = 0.5", fillcolor="#f8dbc6"] ;
146 -> 147 ;
148 [label="mse = 0.168\nsamples = 14\nvalue = 0.786", fillcolor="#eda876"] ;
146 -> 148 ;
149 [label="YearsSinceLastPromotion <= 1.5\nmse = 0.174\nsamples = 49\nvalue = 0.776", fillcolor="#eda978"] ;
71 -> 149 ;
150 [label="JobSatisfaction <= -0.646\nmse = 0.096\nsamples = 28\nvalue = 0.893", fillcolor="#e99457"] ;
149 -> 150 ;
151 [label="mse = 0.168\nsamples = 14\nvalue = 0.786", fillcolor="#eda876"] ;
150 -> 151 ;
152 [label="mse = 0.0\nsamples = 14\nvalue = 1.0", fillcolor="#e58139"] ;
150 -> 152 ;
153 [label="BusinessTravel <= 0.061\nmse = 0.236\nsamples = 21\nvalue = 0.619", fillcolor="#f3c6a5"] ;
149 -> 153 ;
154 [label="mse = 0.198\nsamples = 11\nvalue = 0.727", fillcolor="#efb286"] ;
153 -> 154 ;
155 [label="mse = 0.25\nsamples = 10\nvalue = 0.5", fillcolor="#f8dbc6"] ;
153 -> 155 ;
156 [label="Education <= -0.568\nmse = 0.153\nsamples = 647\nvalue = 0.811", fillcolor="#eca36e"] ;
70 -> 156 ;
157 [label="Department <= -0.227\nmse = 0.175\nsamples = 328\nvalue = 0.774", fillcolor="#edaa79"] ;
156 -> 157 ;
158 [label="DistanceFromHome <= 0.546\nmse = 0.207\nsamples = 161\nvalue = 0.708", fillcolor="#f0b68c"] ;
157 -> 158 ;
159 [label="JobSatisfaction <= 1.191\nmse = 0.184\nsamples = 119\nvalue = 0.756", fillcolor="#eead7e"] ;
158 -> 159 ;
160 [label="YearsAtCompany <= 6.5\nmse = 0.159\nsamples = 96\nvalue = 0.802", fillcolor="#eca571"] ;
159 -> 160 ;
161 [label="BusinessTravel <= -0.751\nmse = 0.196\nsamples = 71\nvalue = 0.732", fillcolor="#efb185"] ;
160 -> 161 ;
162 [label="mse = 0.25\nsamples = 16\nvalue = 0.5", fillcolor="#f8dbc6"] ;
161 -> 162 ;
163 [label="Age <= 1.925\nmse = 0.16\nsamples = 55\nvalue = 0.8", fillcolor="#eca572"] ;
161 -> 163 ;
164 [label="WorkLifeBalance <= 0.209\nmse = 0.12\nsamples = 43\nvalue = 0.86", fillcolor="#ea9a60"] ;
163 -> 164 ;
165 [label="mse = 0.0\nsamples = 20\nvalue = 1.0", fillcolor="#e58139"] ;
164 -> 165 ;
166 [label="Age <= -0.481\nmse = 0.193\nsamples = 23\nvalue = 0.739", fillcolor="#efb083"] ;
164 -> 166 ;
167 [label="mse = 0.213\nsamples = 13\nvalue = 0.692", fillcolor="#f0b890"] ;
166 -> 167 ;
168 [label="mse = 0.16\nsamples = 10\nvalue = 0.8", fillcolor="#eca572"] ;
166 -> 168 ;
169 [label="mse = 0.243\nsamples = 12\nvalue = 0.583", fillcolor="#f4ccaf"] ;
163 -> 169 ;
170 [label="mse = 0.0\nsamples = 25\nvalue = 1.0", fillcolor="#e58139"] ;
160 -> 170 ;
171 [label="YearsAtCompany <= 5.5\nmse = 0.246\nsamples = 23\nvalue = 0.565", fillcolor="#f5cfb4"] ;
159 -> 171 ;
172 [label="mse = 0.213\nsamples = 13\nvalue = 0.692", fillcolor="#f0b890"] ;
171 -> 172 ;
173 [label="mse = 0.24\nsamples = 10\nvalue = 0.4", fillcolor="#fbede3"] ;
171 -> 173 ;
174 [label="BusinessTravel <= -0.481\nmse = 0.245\nsamples = 42\nvalue = 0.571", fillcolor="#f5ceb2"] ;
158 -> 174 ;
175 [label="EnvironmentSatisfaction <= 0.837\nmse = 0.193\nsamples = 23\nvalue = 0.739", fillcolor="#efb083"] ;
174 -> 175 ;
176 [label="mse = 0.09\nsamples = 10\nvalue = 0.9", fillcolor="#e99355"] ;
175 -> 176 ;
177 [label="mse = 0.237\nsamples = 13\nvalue = 0.615", fillcolor="#f3c6a6"] ;
175 -> 177 ;
178 [label="mse = 0.233\nsamples = 19\nvalue = 0.368", fillcolor="#fcf3ec"] ;
174 -> 178 ;
179 [label="BusinessTravel <= 0.331\nmse = 0.136\nsamples = 167\nvalue = 0.838", fillcolor="#eb9e67"] ;
157 -> 179 ;
180 [label="Age <= -0.08\nmse = 0.166\nsamples = 119\nvalue = 0.79", fillcolor="#eda774"] ;
179 -> 180 ;
181 [label="mse = 0.0\nsamples = 29\nvalue = 1.0", fillcolor="#e58139"] ;
180 -> 181 ;
182 [label="JobSatisfaction <= -0.462\nmse = 0.201\nsamples = 90\nvalue = 0.722", fillcolor="#efb388"] ;
180 -> 182 ;
183 [label="EnvironmentSatisfaction <= 0.837\nmse = 0.232\nsamples = 49\nvalue = 0.633", fillcolor="#f3c3a1"] ;
182 -> 183 ;
184 [label="BusinessTravel <= -0.751\nmse = 0.249\nsamples = 32\nvalue = 0.531", fillcolor="#f6d5be"] ;
183 -> 184 ;
185 [label="mse = 0.16\nsamples = 10\nvalue = 0.8", fillcolor="#eca572"] ;
184 -> 185 ;
186 [label="EnvironmentSatisfaction <= 0.399\nmse = 0.242\nsamples = 22\nvalue = 0.409", fillcolor="#fbebe0"] ;
184 -> 186 ;
187 [label="mse = 0.25\nsamples = 10\nvalue = 0.5", fillcolor="#f8dbc6"] ;
186 -> 187 ;
188 [label="mse = 0.222\nsamples = 12\nvalue = 0.333", fillcolor="#fef9f6"] ;
186 -> 188 ;
189 [label="mse = 0.145\nsamples = 17\nvalue = 0.824", fillcolor="#eca16b"] ;
183 -> 189 ;
190 [label="EnvironmentSatisfaction <= 0.508\nmse = 0.142\nsamples = 41\nvalue = 0.829", fillcolor="#eba069"] ;
182 -> 190 ;
191 [label="mse = 0.0\nsamples = 12\nvalue = 1.0", fillcolor="#e58139"] ;
190 -> 191 ;
192 [label="MonthlyIncome <= 1.5\nmse = 0.183\nsamples = 29\nvalue = 0.759", fillcolor="#eeac7d"] ;
190 -> 192 ;
193 [label="mse = 0.09\nsamples = 10\nvalue = 0.9", fillcolor="#e99355"] ;
192 -> 193 ;
194 [label="mse = 0.216\nsamples = 19\nvalue = 0.684", fillcolor="#f1ba92"] ;
192 -> 194 ;
195 [label="WorkLifeBalance <= -0.187\nmse = 0.04\nsamples = 48\nvalue = 0.958", fillcolor="#e78845"] ;
179 -> 195 ;
196 [label="Department <= 0.997\nmse = 0.09\nsamples = 20\nvalue = 0.9", fillcolor="#e99355"] ;
195 -> 196 ;
197 [label="mse = 0.09\nsamples = 10\nvalue = 0.9", fillcolor="#e99355"] ;
196 -> 197 ;
198 [label="mse = 0.09\nsamples = 10\nvalue = 0.9", fillcolor="#e99355"] ;
196 -> 198 ;
199 [label="mse = 0.0\nsamples = 28\nvalue = 1.0", fillcolor="#e58139"] ;
195 -> 199 ;
200 [label="WorkLifeBalance <= -0.402\nmse = 0.128\nsamples = 319\nvalue = 0.85", fillcolor="#eb9c64"] ;
156 -> 200 ;
201 [label="DistanceFromHome <= 1.327\nmse = 0.076\nsamples = 84\nvalue = 0.917", fillcolor="#e89051"] ;
200 -> 201 ;
202 [label="Age <= 0.321\nmse = 0.052\nsamples = 73\nvalue = 0.945", fillcolor="#e78b48"] ;
201 -> 202 ;
203 [label="mse = 0.0\nsamples = 48\nvalue = 1.0", fillcolor="#e58139"] ;
202 -> 203 ;
204 [label="WorkLifeBalance <= -0.537\nmse = 0.134\nsamples = 25\nvalue = 0.84", fillcolor="#eb9e66"] ;
202 -> 204 ;
205 [label="mse = 0.196\nsamples = 15\nvalue = 0.733", fillcolor="#efb184"] ;
204 -> 205 ;
206 [label="mse = 0.0\nsamples = 10\nvalue = 1.0", fillcolor="#e58139"] ;
204 -> 206 ;
207 [label="mse = 0.198\nsamples = 11\nvalue = 0.727", fillcolor="#efb286"] ;
201 -> 207 ;
208 [label="Department <= -0.227\nmse = 0.144\nsamples = 235\nvalue = 0.826", fillcolor="#eba06a"] ;
200 -> 208 ;
209 [label="NumCompaniesWorked <= 1.5\nmse = 0.096\nsamples = 111\nvalue = 0.892", fillcolor="#e99458"] ;
208 -> 209 ;
210 [label="Age <= -0.882\nmse = 0.053\nsamples = 89\nvalue = 0.944", fillcolor="#e78b49"] ;
209 -> 210 ;
211 [label="mse = 0.133\nsamples = 19\nvalue = 0.842", fillcolor="#eb9d66"] ;
210 -> 211 ;
212 [label="Education <= -0.236\nmse = 0.028\nsamples = 70\nvalue = 0.971", fillcolor="#e68641"] ;
210 -> 212 ;
213 [label="mse = 0.0\nsamples = 48\nvalue = 1.0", fillcolor="#e58139"] ;
212 -> 213 ;
214 [label="BusinessTravel <= -0.21\nmse = 0.083\nsamples = 22\nvalue = 0.909", fillcolor="#e89153"] ;
212 -> 214 ;
215 [label="mse = 0.149\nsamples = 11\nvalue = 0.818", fillcolor="#eca26c"] ;
214 -> 215 ;
216 [label="mse = 0.0\nsamples = 11\nvalue = 1.0", fillcolor="#e58139"] ;
214 -> 216 ;
217 [label="WorkLifeBalance <= 0.683\nmse = 0.217\nsamples = 22\nvalue = 0.682", fillcolor="#f1ba93"] ;
209 -> 217 ;
218 [label="mse = 0.248\nsamples = 11\nvalue = 0.455", fillcolor="#f9e3d3"] ;
217 -> 218 ;
219 [label="mse = 0.083\nsamples = 11\nvalue = 0.909", fillcolor="#e89153"] ;
217 -> 219 ;
220 [label="WorkLifeBalance <= -0.094\nmse = 0.179\nsamples = 124\nvalue = 0.766", fillcolor="#eeab7b"] ;
208 -> 220 ;
221 [label="WorkLifeBalance <= -0.269\nmse = 0.222\nsamples = 45\nvalue = 0.667", fillcolor="#f1bd97"] ;
220 -> 221 ;
222 [label="TotalWorkingYears <= 0.5\nmse = 0.178\nsamples = 26\nvalue = 0.769", fillcolor="#eeab7a"] ;
221 -> 222 ;
223 [label="mse = 0.24\nsamples = 10\nvalue = 0.6", fillcolor="#f4c9aa"] ;
222 -> 223 ;
224 [label="mse = 0.109\nsamples = 16\nvalue = 0.875", fillcolor="#ea985c"] ;
222 -> 224 ;
225 [label="mse = 0.249\nsamples = 19\nvalue = 0.526", fillcolor="#f7d6bf"] ;
221 -> 225 ;
226 [label="JobSatisfaction <= -0.462\nmse = 0.146\nsamples = 79\nvalue = 0.823", fillcolor="#eca16b"] ;
220 -> 226 ;
227 [label="YearsAtCompany <= 6.5\nmse = 0.197\nsamples = 37\nvalue = 0.73", fillcolor="#efb285"] ;
226 -> 227 ;
228 [label="YearsSinceLastPromotion <= 0.5\nmse = 0.118\nsamples = 22\nvalue = 0.864", fillcolor="#ea9a60"] ;
227 -> 228 ;
229 [label="mse = 0.188\nsamples = 12\nvalue = 0.75", fillcolor="#eeae80"] ;
228 -> 229 ;
230 [label="mse = 0.0\nsamples = 10\nvalue = 1.0", fillcolor="#e58139"] ;
228 -> 230 ;
231 [label="mse = 0.249\nsamples = 15\nvalue = 0.533", fillcolor="#f6d5bd"] ;
227 -> 231 ;
232 [label="JobSatisfaction <= 0.946\nmse = 0.086\nsamples = 42\nvalue = 0.905", fillcolor="#e99254"] ;
226 -> 232 ;
233 [label="mse = 0.0\nsamples = 19\nvalue = 1.0", fillcolor="#e58139"] ;
232 -> 233 ;
234 [label="EnvironmentSatisfaction <= 0.618\nmse = 0.144\nsamples = 23\nvalue = 0.826", fillcolor="#eba06a"] ;
232 -> 234 ;
235 [label="mse = 0.139\nsamples = 12\nvalue = 0.833", fillcolor="#eb9f68"] ;
234 -> 235 ;
236 [label="mse = 0.149\nsamples = 11\nvalue = 0.818", fillcolor="#eca26c"] ;
234 -> 236 ;
237 [label="Education <= -0.568\nmse = 0.066\nsamples = 84\nvalue = 0.929", fillcolor="#e88e4d"] ;
69 -> 237 ;
238 [label="WorkLifeBalance <= -0.078\nmse = 0.112\nsamples = 39\nvalue = 0.872", fillcolor="#ea985d"] ;
237 -> 238 ;
239 [label="EnvironmentSatisfaction <= 2.042\nmse = 0.04\nsamples = 24\nvalue = 0.958", fillcolor="#e78845"] ;
238 -> 239 ;
240 [label="mse = 0.09\nsamples = 10\nvalue = 0.9", fillcolor="#e99355"] ;
239 -> 240 ;
241 [label="mse = 0.0\nsamples = 14\nvalue = 1.0", fillcolor="#e58139"] ;
239 -> 241 ;
242 [label="mse = 0.196\nsamples = 15\nvalue = 0.733", fillcolor="#efb184"] ;
238 -> 242 ;
243 [label="EnvironmentSatisfaction <= 1.823\nmse = 0.022\nsamples = 45\nvalue = 0.978", fillcolor="#e6853f"] ;
237 -> 243 ;
244 [label="mse = 0.09\nsamples = 10\nvalue = 0.9", fillcolor="#e99355"] ;
243 -> 244 ;
245 [label="mse = 0.0\nsamples = 35\nvalue = 1.0", fillcolor="#e58139"] ;
243 -> 245 ;
246 [label="EnvironmentSatisfaction <= 2.261\nmse = 0.151\nsamples = 1088\nvalue = 0.814", fillcolor="#eca26e"] ;
0 -> 246 [labeldistance=2.5, labelangle=-45, headlabel="False"] ;
247 [label="NumCompaniesWorked <= 0.5\nmse = 0.148\nsamples = 1066\nvalue = 0.82", fillcolor="#eca16c"] ;
246 -> 247 ;
248 [label="DistanceFromHome <= -1.015\nmse = 0.227\nsamples = 40\nvalue = 0.65", fillcolor="#f2c09c"] ;
247 -> 248 ;
249 [label="mse = 0.248\nsamples = 11\nvalue = 0.455", fillcolor="#f9e3d3"] ;
248 -> 249 ;
250 [label="YearsSinceLastPromotion <= 1.5\nmse = 0.2\nsamples = 29\nvalue = 0.724", fillcolor="#efb387"] ;
248 -> 250 ;
251 [label="mse = 0.139\nsamples = 18\nvalue = 0.833", fillcolor="#eb9f68"] ;
250 -> 251 ;
252 [label="mse = 0.248\nsamples = 11\nvalue = 0.545", fillcolor="#f6d3ba"] ;
250 -> 252 ;
253 [label="WorkLifeBalance <= -0.936\nmse = 0.143\nsamples = 1026\nvalue = 0.827", fillcolor="#eba06a"] ;
247 -> 253 ;
254 [label="YearsAtCompany <= 6.5\nmse = 0.225\nsamples = 38\nvalue = 0.658", fillcolor="#f2bf9a"] ;
253 -> 254 ;
255 [label="DistanceFromHome <= 0.546\nmse = 0.173\nsamples = 27\nvalue = 0.778", fillcolor="#eda978"] ;
254 -> 255 ;
256 [label="mse = 0.055\nsamples = 17\nvalue = 0.941", fillcolor="#e78c4a"] ;
255 -> 256 ;
257 [label="mse = 0.25\nsamples = 10\nvalue = 0.5", fillcolor="#f8dbc6"] ;
255 -> 257 ;
258 [label="mse = 0.231\nsamples = 11\nvalue = 0.364", fillcolor="#fdf4ed"] ;
254 -> 258 ;
259 [label="YearsAtCompany <= 7.5\nmse = 0.139\nsamples = 988\nvalue = 0.833", fillcolor="#eb9f68"] ;
253 -> 259 ;
260 [label="BusinessTravel <= -0.481\nmse = 0.135\nsamples = 943\nvalue = 0.839", fillcolor="#eb9e67"] ;
259 -> 260 ;
261 [label="Education <= 1.591\nmse = 0.156\nsamples = 429\nvalue = 0.807", fillcolor="#eca470"] ;
260 -> 261 ;
262 [label="YearsAtCompany <= 1.5\nmse = 0.139\nsamples = 342\nvalue = 0.833", fillcolor="#eb9f68"] ;
261 -> 262 ;
263 [label="WorkLifeBalance <= -0.194\nmse = 0.207\nsamples = 48\nvalue = 0.708", fillcolor="#f0b58b"] ;
262 -> 263 ;
264 [label="mse = 0.249\nsamples = 19\nvalue = 0.526", fillcolor="#f7d6bf"] ;
263 -> 264 ;
265 [label="WorkLifeBalance <= 1.211\nmse = 0.143\nsamples = 29\nvalue = 0.828", fillcolor="#eba06a"] ;
263 -> 265 ;
266 [label="mse = 0.099\nsamples = 18\nvalue = 0.889", fillcolor="#e99558"] ;
265 -> 266 ;
267 [label="mse = 0.198\nsamples = 11\nvalue = 0.727", fillcolor="#efb286"] ;
265 -> 267 ;
268 [label="TotalWorkingYears <= 0.5\nmse = 0.125\nsamples = 294\nvalue = 0.854", fillcolor="#ea9b62"] ;
262 -> 268 ;
269 [label="StockOptionLevel <= 3.5\nmse = 0.158\nsamples = 112\nvalue = 0.804", fillcolor="#eca471"] ;
268 -> 269 ;
270 [label="EnvironmentSatisfaction <= 0.289\nmse = 0.181\nsamples = 84\nvalue = 0.762", fillcolor="#eeac7c"] ;
269 -> 270 ;
271 [label="WorkLifeBalance <= -0.573\nmse = 0.143\nsamples = 52\nvalue = 0.827", fillcolor="#eba06a"] ;
270 -> 271 ;
272 [label="mse = 0.0\nsamples = 16\nvalue = 1.0", fillcolor="#e58139"] ;
271 -> 272 ;
273 [label="Gender <= 0.969\nmse = 0.188\nsamples = 36\nvalue = 0.75", fillcolor="#eeae80"] ;
271 -> 273 ;
274 [label="mse = 0.059\nsamples = 16\nvalue = 0.938", fillcolor="#e78c4b"] ;
273 -> 274 ;
275 [label="BusinessTravel <= -0.751\nmse = 0.24\nsamples = 20\nvalue = 0.6", fillcolor="#f4c9aa"] ;
273 -> 275 ;
276 [label="mse = 0.25\nsamples = 10\nvalue = 0.5", fillcolor="#f8dbc6"] ;
275 -> 276 ;
277 [label="mse = 0.21\nsamples = 10\nvalue = 0.7", fillcolor="#f0b78e"] ;
275 -> 277 ;
278 [label="EducationField <= 0.433\nmse = 0.226\nsamples = 32\nvalue = 0.656", fillcolor="#f2bf9a"] ;
270 -> 278 ;
279 [label="mse = 0.16\nsamples = 10\nvalue = 0.8", fillcolor="#eca572"] ;
278 -> 279 ;
280 [label="Age <= -0.281\nmse = 0.242\nsamples = 22\nvalue = 0.591", fillcolor="#f4cbad"] ;
278 -> 280 ;
281 [label="mse = 0.25\nsamples = 10\nvalue = 0.5", fillcolor="#f8dbc6"] ;
280 -> 281 ;
282 [label="mse = 0.222\nsamples = 12\nvalue = 0.667", fillcolor="#f1bd97"] ;
280 -> 282 ;
283 [label="WorkLifeBalance <= 1.083\nmse = 0.066\nsamples = 28\nvalue = 0.929", fillcolor="#e88e4d"] ;
269 -> 283 ;
284 [label="mse = 0.0\nsamples = 18\nvalue = 1.0", fillcolor="#e58139"] ;
283 -> 284 ;
285 [label="mse = 0.16\nsamples = 10\nvalue = 0.8", fillcolor="#eca572"] ;
283 -> 285 ;
286 [label="JobSatisfaction <= 0.701\nmse = 0.102\nsamples = 182\nvalue = 0.885", fillcolor="#e9965a"] ;
268 -> 286 ;
287 [label="JobSatisfaction <= 0.273\nmse = 0.12\nsamples = 150\nvalue = 0.86", fillcolor="#ea9a61"] ;
286 -> 287 ;
288 [label="BusinessTravel <= -0.751\nmse = 0.107\nsamples = 140\nvalue = 0.879", fillcolor="#ea975b"] ;
287 -> 288 ;
289 [label="MonthlyIncome <= 1.5\nmse = 0.13\nsamples = 104\nvalue = 0.846", fillcolor="#eb9d65"] ;
288 -> 289 ;
290 [label="Education <= 0.428\nmse = 0.188\nsamples = 28\nvalue = 0.75", fillcolor="#eeae80"] ;
289 -> 290 ;
291 [label="mse = 0.23\nsamples = 14\nvalue = 0.643", fillcolor="#f2c19e"] ;
290 -> 291 ;
292 [label="mse = 0.122\nsamples = 14\nvalue = 0.857", fillcolor="#ea9b61"] ;
290 -> 292 ;
293 [label="Education <= 0.76\nmse = 0.104\nsamples = 76\nvalue = 0.882", fillcolor="#e9965a"] ;
289 -> 293 ;
294 [label="Education <= 0.262\nmse = 0.06\nsamples = 47\nvalue = 0.936", fillcolor="#e78c4b"] ;
293 -> 294 ;
295 [label="mse = 0.16\nsamples = 10\nvalue = 0.8", fillcolor="#eca572"] ;
294 -> 295 ;
296 [label="EducationField <= 0.75\nmse = 0.026\nsamples = 37\nvalue = 0.973", fillcolor="#e68641"] ;
294 -> 296 ;
297 [label="mse = 0.0\nsamples = 26\nvalue = 1.0", fillcolor="#e58139"] ;
296 -> 297 ;
298 [label="mse = 0.083\nsamples = 11\nvalue = 0.909", fillcolor="#e89153"] ;
296 -> 298 ;
299 [label="YearsAtCompany <= 5.5\nmse = 0.164\nsamples = 29\nvalue = 0.793", fillcolor="#eda674"] ;
293 -> 299 ;
300 [label="mse = 0.222\nsamples = 12\nvalue = 0.667", fillcolor="#f1bd97"] ;
299 -> 300 ;
301 [label="mse = 0.104\nsamples = 17\nvalue = 0.882", fillcolor="#e9965a"] ;
299 -> 301 ;
302 [label="Education <= 0.428\nmse = 0.027\nsamples = 36\nvalue = 0.972", fillcolor="#e68641"] ;
288 -> 302 ;
303 [label="mse = 0.0\nsamples = 25\nvalue = 1.0", fillcolor="#e58139"] ;
302 -> 303 ;
304 [label="mse = 0.083\nsamples = 11\nvalue = 0.909", fillcolor="#e89153"] ;
302 -> 304 ;
305 [label="mse = 0.24\nsamples = 10\nvalue = 0.6", fillcolor="#f4c9aa"] ;
287 -> 305 ;
306 [label="mse = 0.0\nsamples = 32\nvalue = 1.0", fillcolor="#e58139"] ;
286 -> 306 ;
307 [label="EnvironmentSatisfaction <= 1.056\nmse = 0.21\nsamples = 87\nvalue = 0.701", fillcolor="#f0b78e"] ;
261 -> 307 ;
308 [label="MonthlyIncome <= 1.5\nmse = 0.189\nsamples = 71\nvalue = 0.746", fillcolor="#eeaf81"] ;
307 -> 308 ;
309 [label="Gender <= 1.533\nmse = 0.23\nsamples = 25\nvalue = 0.64", fillcolor="#f2c29f"] ;
308 -> 309 ;
310 [label="mse = 0.25\nsamples = 12\nvalue = 0.5", fillcolor="#f8dbc6"] ;
309 -> 310 ;
311 [label="mse = 0.178\nsamples = 13\nvalue = 0.769", fillcolor="#eeab7a"] ;
309 -> 311 ;
312 [label="BusinessTravel <= -0.751\nmse = 0.157\nsamples = 46\nvalue = 0.804", fillcolor="#eca470"] ;
308 -> 312 ;
313 [label="Education <= 2.255\nmse = 0.116\nsamples = 30\nvalue = 0.867", fillcolor="#ea995f"] ;
312 -> 313 ;
314 [label="mse = 0.0\nsamples = 11\nvalue = 1.0", fillcolor="#e58139"] ;
313 -> 314 ;
315 [label="mse = 0.166\nsamples = 19\nvalue = 0.789", fillcolor="#eda775"] ;
313 -> 315 ;
316 [label="mse = 0.215\nsamples = 16\nvalue = 0.688", fillcolor="#f1b991"] ;
312 -> 316 ;
317 [label="mse = 0.25\nsamples = 16\nvalue = 0.5", fillcolor="#f8dbc6"] ;
307 -> 317 ;
318 [label="WorkLifeBalance <= 2.74\nmse = 0.116\nsamples = 514\nvalue = 0.866", fillcolor="#ea995f"] ;
260 -> 318 ;
319 [label="DistanceFromHome <= -0.235\nmse = 0.112\nsamples = 504\nvalue = 0.871", fillcolor="#ea985d"] ;
318 -> 319 ;
320 [label="Department <= 0.031\nmse = 0.136\nsamples = 240\nvalue = 0.838", fillcolor="#eb9e67"] ;
319 -> 320 ;
321 [label="WorkLifeBalance <= -0.82\nmse = 0.175\nsamples = 115\nvalue = 0.774", fillcolor="#edaa79"] ;
320 -> 321 ;
322 [label="mse = 0.24\nsamples = 15\nvalue = 0.6", fillcolor="#f4c9aa"] ;
321 -> 322 ;
323 [label="StockOptionLevel <= 3.5\nmse = 0.16\nsamples = 100\nvalue = 0.8", fillcolor="#eca572"] ;
321 -> 323 ;
324 [label="EnvironmentSatisfaction <= -0.806\nmse = 0.137\nsamples = 79\nvalue = 0.835", fillcolor="#eb9f68"] ;
323 -> 324 ;
325 [label="mse = 0.222\nsamples = 15\nvalue = 0.667", fillcolor="#f1bd97"] ;
324 -> 325 ;
326 [label="BusinessTravel <= 0.061\nmse = 0.109\nsamples = 64\nvalue = 0.875", fillcolor="#ea985c"] ;
324 -> 326 ;
327 [label="Gender <= 0.969\nmse = 0.178\nsamples = 26\nvalue = 0.769", fillcolor="#eeab7a"] ;
326 -> 327 ;
328 [label="mse = 0.23\nsamples = 14\nvalue = 0.643", fillcolor="#f2c19e"] ;
327 -> 328 ;
329 [label="mse = 0.076\nsamples = 12\nvalue = 0.917", fillcolor="#e89051"] ;
327 -> 329 ;
330 [label="EnvironmentSatisfaction <= 0.782\nmse = 0.05\nsamples = 38\nvalue = 0.947", fillcolor="#e78a48"] ;
326 -> 330 ;
331 [label="mse = 0.0\nsamples = 28\nvalue = 1.0", fillcolor="#e58139"] ;
330 -> 331 ;
332 [label="mse = 0.16\nsamples = 10\nvalue = 0.8", fillcolor="#eca572"] ;
330 -> 332 ;
333 [label="TotalWorkingYears <= 0.5\nmse = 0.222\nsamples = 21\nvalue = 0.667", fillcolor="#f1bd97"] ;
323 -> 333 ;
334 [label="mse = 0.248\nsamples = 11\nvalue = 0.545", fillcolor="#f6d3ba"] ;
333 -> 334 ;
335 [label="mse = 0.16\nsamples = 10\nvalue = 0.8", fillcolor="#eca572"] ;
333 -> 335 ;
336 [label="YearsSinceLastPromotion <= 1.5\nmse = 0.093\nsamples = 125\nvalue = 0.896", fillcolor="#e99456"] ;
320 -> 336 ;
337 [label="StockOptionLevel <= 1.5\nmse = 0.054\nsamples = 87\nvalue = 0.943", fillcolor="#e78b49"] ;
336 -> 337 ;
338 [label="Department <= 2.35\nmse = 0.104\nsamples = 34\nvalue = 0.882", fillcolor="#e9965a"] ;
337 -> 338 ;
339 [label="EnvironmentSatisfaction <= 0.399\nmse = 0.139\nsamples = 24\nvalue = 0.833", fillcolor="#eb9f68"] ;
338 -> 339 ;
340 [label="mse = 0.076\nsamples = 12\nvalue = 0.917", fillcolor="#e89051"] ;
339 -> 340 ;
341 [label="mse = 0.188\nsamples = 12\nvalue = 0.75", fillcolor="#eeae80"] ;
339 -> 341 ;
342 [label="mse = 0.0\nsamples = 10\nvalue = 1.0", fillcolor="#e58139"] ;
338 -> 342 ;
343 [label="Education <= 2.67\nmse = 0.019\nsamples = 53\nvalue = 0.981", fillcolor="#e6843e"] ;
337 -> 343 ;
344 [label="mse = 0.0\nsamples = 43\nvalue = 1.0", fillcolor="#e58139"] ;
343 -> 344 ;
345 [label="mse = 0.09\nsamples = 10\nvalue = 0.9", fillcolor="#e99355"] ;
343 -> 345 ;
346 [label="WorkLifeBalance <= -0.504\nmse = 0.166\nsamples = 38\nvalue = 0.789", fillcolor="#eda775"] ;
336 -> 346 ;
347 [label="mse = 0.0\nsamples = 10\nvalue = 1.0", fillcolor="#e58139"] ;
346 -> 347 ;
348 [label="EducationField <= 0.75\nmse = 0.204\nsamples = 28\nvalue = 0.714", fillcolor="#f0b48a"] ;
346 -> 348 ;
349 [label="mse = 0.234\nsamples = 16\nvalue = 0.625", fillcolor="#f3c4a3"] ;
348 -> 349 ;
350 [label="mse = 0.139\nsamples = 12\nvalue = 0.833", fillcolor="#eb9f68"] ;
348 -> 350 ;
351 [label="YearsSinceLastPromotion <= 1.5\nmse = 0.089\nsamples = 264\nvalue = 0.902", fillcolor="#e99355"] ;
319 -> 351 ;
352 [label="JobSatisfaction <= 0.64\nmse = 0.066\nsamples = 198\nvalue = 0.929", fillcolor="#e88e4d"] ;
351 -> 352 ;
353 [label="EnvironmentSatisfaction <= 1.385\nmse = 0.039\nsamples = 146\nvalue = 0.959", fillcolor="#e78845"] ;
352 -> 353 ;
354 [label="BusinessTravel <= 0.872\nmse = 0.023\nsamples = 126\nvalue = 0.976", fillcolor="#e68540"] ;
353 -> 354 ;
355 [label="mse = 0.0\nsamples = 80\nvalue = 1.0", fillcolor="#e58139"] ;
354 -> 355 ;
356 [label="Department <= 0.288\nmse = 0.061\nsamples = 46\nvalue = 0.935", fillcolor="#e78d4b"] ;
354 -> 356 ;
357 [label="mse = 0.0\nsamples = 25\nvalue = 1.0", fillcolor="#e58139"] ;
356 -> 357 ;
358 [label="Education <= 1.259\nmse = 0.122\nsamples = 21\nvalue = 0.857", fillcolor="#ea9b61"] ;
356 -> 358 ;
359 [label="mse = 0.16\nsamples = 10\nvalue = 0.8", fillcolor="#eca572"] ;
358 -> 359 ;
360 [label="mse = 0.083\nsamples = 11\nvalue = 0.909", fillcolor="#e89153"] ;
358 -> 360 ;
361 [label="JobSatisfaction <= -0.278\nmse = 0.128\nsamples = 20\nvalue = 0.85", fillcolor="#eb9c63"] ;
353 -> 361 ;
362 [label="mse = 0.09\nsamples = 10\nvalue = 0.9", fillcolor="#e99355"] ;
361 -> 362 ;
363 [label="mse = 0.16\nsamples = 10\nvalue = 0.8", fillcolor="#eca572"] ;
361 -> 363 ;
364 [label="JobSatisfaction <= 1.681\nmse = 0.13\nsamples = 52\nvalue = 0.846", fillcolor="#eb9d65"] ;
352 -> 364 ;
365 [label="Department <= 0.095\nmse = 0.193\nsamples = 23\nvalue = 0.739", fillcolor="#efb083"] ;
364 -> 365 ;
366 [label="mse = 0.248\nsamples = 11\nvalue = 0.545", fillcolor="#f6d3ba"] ;
365 -> 366 ;
367 [label="mse = 0.076\nsamples = 12\nvalue = 0.917", fillcolor="#e89051"] ;
365 -> 367 ;
368 [label="Education <= 1.923\nmse = 0.064\nsamples = 29\nvalue = 0.931", fillcolor="#e88d4d"] ;
364 -> 368 ;
369 [label="mse = 0.0\nsamples = 17\nvalue = 1.0", fillcolor="#e58139"] ;
368 -> 369 ;
370 [label="mse = 0.139\nsamples = 12\nvalue = 0.833", fillcolor="#eb9f68"] ;
368 -> 370 ;
371 [label="Department <= -0.098\nmse = 0.149\nsamples = 66\nvalue = 0.818", fillcolor="#eca26c"] ;
351 -> 371 ;
372 [label="BusinessTravel <= 0.872\nmse = 0.059\nsamples = 32\nvalue = 0.938", fillcolor="#e78c4b"] ;
371 -> 372 ;
373 [label="mse = 0.0\nsamples = 22\nvalue = 1.0", fillcolor="#e58139"] ;
372 -> 373 ;
374 [label="mse = 0.16\nsamples = 10\nvalue = 0.8", fillcolor="#eca572"] ;
372 -> 374 ;
375 [label="WorkLifeBalance <= -0.425\nmse = 0.208\nsamples = 34\nvalue = 0.706", fillcolor="#f0b68c"] ;
371 -> 375 ;
376 [label="mse = 0.083\nsamples = 11\nvalue = 0.909", fillcolor="#e89153"] ;
375 -> 376 ;
377 [label="WorkLifeBalance <= -0.006\nmse = 0.238\nsamples = 23\nvalue = 0.609", fillcolor="#f4c7a8"] ;
375 -> 377 ;
378 [label="mse = 0.213\nsamples = 13\nvalue = 0.692", fillcolor="#f0b890"] ;
377 -> 378 ;
379 [label="mse = 0.25\nsamples = 10\nvalue = 0.5", fillcolor="#f8dbc6"] ;
377 -> 379 ;
380 [label="mse = 0.24\nsamples = 10\nvalue = 0.6", fillcolor="#f4c9aa"] ;
318 -> 380 ;
381 [label="EducationField <= 0.908\nmse = 0.205\nsamples = 45\nvalue = 0.711", fillcolor="#f0b58b"] ;
259 -> 381 ;
382 [label="EnvironmentSatisfaction <= -0.368\nmse = 0.241\nsamples = 32\nvalue = 0.594", fillcolor="#f4caac"] ;
381 -> 382 ;
383 [label="mse = 0.139\nsamples = 12\nvalue = 0.833", fillcolor="#eb9f68"] ;
382 -> 383 ;
384 [label="DistanceFromHome <= -0.235\nmse = 0.248\nsamples = 20\nvalue = 0.45", fillcolor="#f9e4d5"] ;
382 -> 384 ;
385 [label="mse = 0.24\nsamples = 10\nvalue = 0.6", fillcolor="#f4c9aa"] ;
384 -> 385 ;
386 [label="mse = 0.21\nsamples = 10\nvalue = 0.3", fillcolor="#ffffff"] ;
384 -> 386 ;
387 [label="mse = 0.0\nsamples = 13\nvalue = 1.0", fillcolor="#e58139"] ;
381 -> 387 ;
388 [label="EducationField <= 2.177\nmse = 0.248\nsamples = 22\nvalue = 0.545", fillcolor="#f6d3ba"] ;
246 -> 388 ;
389 [label="mse = 0.222\nsamples = 12\nvalue = 0.333", fillcolor="#fef9f6"] ;
388 -> 389 ;
390 [label="mse = 0.16\nsamples = 10\nvalue = 0.8", fillcolor="#eca572"] ;
388 -> 390 ;
}